34 128
34 0.20853432 -0.0061050295 -0.17924634 0.11438633 -0.032726828 -0.033346146 -0.08375022 -0.12994355 0.062034875 -0.06333727 0.061740983 -0.051672984 0.09908592 -0.14607625 0.14094993 0.064650275 0.12134709 0.05710725 0.11670604 0.029790709 0.022954945 0.03311144 0.013165055 -0.07050792 0.061420154 -0.19759572 -0.15174082 0.1577865 0.1381674 0.12239154 0.12787655 -0.17664382 0.07227382 0.04536692 0.0853433 -0.107093416 -0.010920077 -0.015237162 0.0681761 0.1911732 -0.100625046 0.021565985 -0.019117815 -0.0740479 0.013720988 -0.04976903 -0.038938828 -2.4686218e-05 0.15325229 -0.0031801262 -0.1296009 0.11515436 -0.1443536 0.08871664 0.09475266 0.13813294 -0.26822728 -0.03591269 -0.05074016 0.005245693 -0.045424238 -0.24747615 -0.08935603 0.012681331 -0.27242932 -0.053759858 0.18591663 0.059163067 0.16571397 -0.15300275 -0.10624726 -0.1764264 -0.0067253495 -0.110742226 0.044184897 0.15536115 -0.036232796 0.074539594 0.012739594 -0.051061496 -0.07880482 -0.022496022 -0.043771133 0.14626376 -0.006465011 -0.07949345 -0.048988607 -0.012176221 -0.12151663 -0.14694017 -0.12616172 0.118557535 0.0013903911 0.021338206 0.033515785 0.0616694 0.015584594 0.17594789 0.12053517 -0.04836423 0.05904006 0.08199545 0.0013360942 0.044950843 0.09208944 0.10810149 -0.122412935 0.01900052 -0.0076111085 -0.25250068 0.108754344 -0.00534351 -0.041024406 0.046606082 -0.061839946 -0.026656892 0.01955 0.14114606 -0.033443652 0.18580791 0.022377372 -0.08831751 0.0152041195 0.0614769 0.1460732 -0.05320771 0.19233671 0.105038315
1 0.07891986 -0.07262862 -0.091993265 0.11561607 -0.16000572 0.109455794 -0.07385838 -0.17396358 0.15322606 0.013013396 -0.036499817 0.11949779 0.13439809 -0.14847946 0.2836585 0.16273904 0.05854042 0.07419034 -0.032993812 0.04886644 -0.16278882 -0.055988654 -0.050289962 0.040439356 0.0721634 -0.13176402 -0.08456755 0.057701427 0.14628157 0.15946549 -0.003346101 -0.09305205 0.15489577 0.1533405 0.011289798 -0.08643519 -0.016928267 -0.017768472 -0.0059243473 0.14424874 -0.14892226 0.09903637 -0.006732891 -0.084475435 0.03147602 -0.10380604 -0.12852217 -0.010195913 0.13890727 0.14331624 -0.034188792 -0.016726412 -0.16018915 -0.04635905 0.21301073 0.16854344 -0.14614089 -0.011017457 0.0103181945 0.11177011 -0.03355426 -0.31210515 -0.05420921 0.015875857 -0.16453584 0.05354203 0.15435337 0.013953919 0.14049257 -0.055691056 -0.100026794 -0.16409604 -0.101318814 -0.036863014 0.08117668 0.14207739 -0.014738756 -0.029165799 -0.20243007 -0.062374163 0.0049964515 -0.10997119 -0.075726524 0.11739274 -0.050736308 -0.06863763 0.079972394 0.07137606 -0.05187393 -0.21163888 -0.104948655 0.12108526 -0.06534623 -0.12315424 -0.00640542 0.1570442 0.012056062 0.14907072 0.18126352 0.07370528 0.12767303 0.032586437 -0.085965864 0.09377911 -0.09913027 0.022660458 0.16958854 -0.027237866 -0.14004032 -0.2743488 0.2306082 0.0847202 -0.19782099 0.058974743 0.0019806733 0.16379857 -0.06266355 0.21922955 0.0013879202 0.16323166 -0.015938362 -0.11538176 -0.07920306 -0.010258633 0.06242002 -0.047449354 0.17745133 0.04382762
33 0.19209892 -0.016766451 -0.17129876 0.117915176 -0.05131829 -0.010303127 -0.08600898 -0.1431281 0.07598451 -0.052364327 0.046846803 -0.027792133 0.105972014 -0.15102962 0.16928941 0.086991884 0.11309729 0.061026774 0.10087547 0.032934006 -0.01128615 0.0155648375 0.0034384655 -0.052956782 0.059350543 -0.19262798 -0.1422481 0.14714237 0.14407246 0.13373944 0.106038325 -0.1610678 0.08654748 0.06914186 0.07787614 -0.11203178 -0.011825016 -0.014670172 0.05819192 0.19128777 -0.109548 0.031861182 -0.015644385 -0.0791188 0.018845191 -0.0675669 -0.057573423 0.0016900353 0.15183839 0.024872433 -0.1222627 0.09234 -0.14903504 0.071038716 0.12092072 0.14714292 -0.2570245 -0.033708006 -0.040028054 0.02639125 -0.048786785 -0.26785156 -0.08562215 0.011302641 -0.26097718 -0.035038013 0.18953565 0.05911593 0.1636643 -0.14653695 -0.104621924 -0.17974038 -0.02347561 -0.1053134 0.05469961 0.15247194 -0.030769633 0.056071274 -0.023754071 -0.058918666 -0.06447291 -0.04215759 -0.04562144 0.13839044 -0.013392546 -0.0800642 -0.02786992 -0.00075971254 -0.11359344 -0.16282156 -0.1257847 0.120926544 -0.0062555326 -0.007597136 0.028102329 0.07847359 0.010328461 0.17634988 0.13680477 -0.034091357 0.074691325 0.072224505 -0.015263983 0.057058424 0.06244678 0.09464318 -0.07774564 0.008141764 -0.030757839 -0.26558673 0.13682164 0.009480869 -0.07295928 0.052905694 -0.05829304 0.003104588 0.0053080954 0.15837863 -0.020995516 0.18980178 0.015366715 -0.102226354 0.0028760256 0.047996413 0.13575438 -0.054028045 0.19314618 0.093409166
3 0.17283097 -0.013904713 -0.16146623 0.12251581 -0.06673724 0.012161594 -0.08561109 -0.1432245 0.08856367 -0.041509926 0.03387418 -0.0024751045 0.10558407 -0.14896415 0.17951177 0.0941734 0.10885129 0.062180176 0.07820602 0.03387847 -0.025619606 0.007089347 -0.0050701564 -0.0362021 0.058671948 -0.18966506 -0.13632904 0.13830994 0.14521341 0.13697957 0.086968586 -0.15589269 0.09149083 0.085320815 0.06711311 -0.10629473 -0.021303939 -0.019368405 0.044906076 0.18839742 -0.11601847 0.042680923 -0.008644377 -0.087193705 0.017771982 -0.06676345 -0.06759734 -0.0038183522 0.1580157 0.043140322 -0.10663429 0.08273389 -0.15387766 0.05099277 0.12532668 0.15210977 -0.24032126 -0.027515272 -0.033374 0.035496578 -0.040420815 -0.27501717 -0.08030362 0.0096577015 -0.2491121 -0.025563065 0.18189959 0.050608076 0.1616459 -0.13040811 -0.10498412 -0.1727847 -0.028938036 -0.097402826 0.05735516 0.1608161 -0.032956738 0.052375402 -0.054804362 -0.05379422 -0.06158828 -0.053745408 -0.052665982 0.14764078 -0.027859684 -0.07921007 -0.013294903 0.0147120105 -0.114275694 -0.17304231 -0.12792662 0.13459517 -0.025677126 -0.023099048 0.026596753 0.094503105 0.012212464 0.17161568 0.14074343 -0.018169073 0.08499189 0.07007594 -0.021401908 0.06028166 0.045492318 0.08448773 -0.03736746 0.010566358 -0.041936852 -0.26298097 0.14181173 0.024193145 -0.08666181 0.05097492 -0.049655102 0.030449864 -0.004636086 0.16999334 -0.02771806 0.18532203 0.0075922087 -0.09498115 -0.020519612 0.03698867 0.12940511 -0.056360636 0.1842297 0.0870377
2 0.12189316 -0.033779666 -0.12083567 0.11595905 -0.10066376 0.04905936 -0.07033381 -0.15108898 0.11281436 -0.015960729 0.0075200843 0.049475227 0.11247007 -0.1471989 0.21806352 0.12095424 0.07963748 0.06679185 0.030553255 0.032184687 -0.08111698 -0.015606052 -0.029363379 0.0030625206 0.060005017 -0.16282961 -0.1179296 0.09895277 0.1457771 0.14259999 0.04743222 -0.12801738 0.11626604 0.105885714 0.04389463 -0.089972846 -0.018099494 -0.019784255 0.019018019 0.15740614 -0.12664428 0.063345484 -0.009038188 -0.0783098 0.019479584 -0.07851883 -0.0924972 -0.0055442294 0.14978552 0.085586675 -0.07078496 0.03789923 -0.15452515 0.0021913177 0.15426214 0.15201752 -0.18785237 -0.021257 -0.009853608 0.066047 -0.038492158 -0.28149483 -0.073091105 0.013233349 -0.20810026 0.010094629 0.16851445 0.032752026 0.14730576 -0.09480041 -0.10178703 -0.15959156 -0.055467445 -0.067768805 0.06125222 0.15165831 -0.02466443 0.012291118 -0.1134287 -0.049570244 -0.03173058 -0.0738444 -0.05873101 0.12460874 -0.034610998 -0.069934554 0.0279878 0.0351796 -0.08280279 -0.18114829 -0.11410143 0.12304087 -0.04434451 -0.06343764 0.013493629 0.11453708 0.010086814 0.15584995 0.15177466 0.018347602 0.093514375 0.050804637 -0.04682024 0.07115034 -0.018745692 0.049713105 0.050137725 -0.0020304208 -0.082871966 -0.26124752 0.17384033 0.04201673 -0.13334212 0.058208406 -0.01963372 0.08203946 -0.028752586 0.1859675 -0.01337073 0.16729625 -0.0016669477 -0.09587747 -0.04534323 0.022073613 0.09057672 -0.04602903 0.1763664 0.07022337
4 0.11351313 -0.044411447 -0.11806357 0.11993775 -0.12071869 0.07188314 -0.07261563 -0.15986608 0.12332636 -0.008906483 -0.008333359 0.06924876 0.12429951 -0.15435982 0.24321991 0.1315014 0.077666156 0.06829254 0.0061514885 0.038905486 -0.11118666 -0.02845087 -0.03930057 0.014137239 0.06720859 -0.15302593 -0.113011755 0.09162933 0.15115878 0.1502985 0.036538377 -0.12102294 0.13138643 0.12837307 0.036817525 -0.102050185 -0.026239168 -0.01983545 0.018846763 0.15957649 -0.14554055 0.07250844 -0.002232422 -0.089113794 0.028739149 -0.0893781 -0.10489993 -0.012127721 0.15807866 0.10508409 -0.06756638 0.024296958 -0.16934484 -0.015123411 0.18276584 0.17135568 -0.19000416 -0.01723321 -0.0059937495 0.077616304 -0.036576957 -0.3123805 -0.07492736 0.016975142 -0.20690419 0.022667702 0.18389328 0.030554093 0.15943187 -0.09322414 -0.10557024 -0.16855253 -0.07651401 -0.07707971 0.07645644 0.17550118 -0.02383097 0.0010946251 -0.15843505 -0.06368317 -0.03429961 -0.09445216 -0.075335816 0.14191736 -0.048274692 -0.07577189 0.045264654 0.048658293 -0.09272875 -0.21599782 -0.13023879 0.14269896 -0.053377125 -0.090325005 0.0036536234 0.14284237 0.014632478 0.1674041 0.16418341 0.041343275 0.11184381 0.054287605 -0.05877483 0.08098054 -0.03957293 0.045216586 0.09046041 -0.0008713791 -0.099973336 -0.2843246 0.20351411 0.062030096 -0.16371302 0.06391235 -0.012857572 0.11324645 -0.04591924 0.21124507 -0.011435883 0.17758796 -0.00365811 -0.10868579 -0.06324925 0.015875438 0.09558151 -0.05457636 0.18959057 0.07434889
32 0.19629543 -0.0042235544 -0.17950001 0.12425898 -0.034068204 -0.014085586 -0.085157976 -0.14062546 0.06827596 -0.055912133 0.0540043 -0.042805787 0.10838451 -0.15693599 0.15446618 0.080218256 0.12848961 0.060522098 0.114262514 0.027930956 0.01610098 0.020041436 0.010821494 -0.06837403 0.056745466 -0.20528793 -0.15953958 0.16383626 0.15528461 0.13147484 0.11606875 -0.17708091 0.07268781 0.06122979 0.0910568 -0.1067128 -0.016265523 -0.012760119 0.062114723 0.19764738 -0.09861347 0.023939818 -0.0145903835 -0.08298738 0.016476758 -0.059531923 -0.05209173 0.0012581008 0.16155928 0.011271997 -0.12673809 0.10434613 -0.15399769 0.08077578 0.11330311 0.14738482 -0.26884505 -0.034957033 -0.054341845 0.013774908 -0.04566207 -0.26580638 -0.08808771 0.012548199 -0.27781388 -0.044482186 0.18885444 0.059073083 0.16849855 -0.15621656 -0.113666445 -0.17646879 -0.014576085 -0.11685112 0.052717138 0.16918762 -0.041149624 0.07698349 -0.007142677 -0.06434268 -0.08853569 -0.037465345 -0.05563242 0.16353995 -0.020049335 -0.09528619 -0.03609414 -0.012046025 -0.13405076 -0.1848683 -0.13427122 0.14082587 -0.009468361 -0.0032288772 0.040285174 0.0851988 0.011379675 0.18472491 0.12687205 -0.045807756 0.06859476 0.082917206 0.0016574147 0.05424422 0.09123055 0.109210804 -0.098604985 0.013949852 -0.01912608 -0.26358435 0.12985615 0.009194282 -0.06527391 0.049783934 -0.061123665 -0.011492131 0.015001814 0.15736699 -0.032640096 0.19382153 0.022906 -0.095876805 0.0036681194 0.05097975 0.14379925 -0.0640564 0.19022077 0.10271348
14 0.1329267 -0.037512355 -0.13269824 0.11702826 -0.10611611 0.051990062 -0.07996736 -0.15602818 0.11693515 -0.021061875 0.0088108545 0.04286328 0.11981874 -0.15284103 0.22529177 0.12456175 0.09218472 0.072951615 0.035102077 0.039004933 -0.08106262 -0.018782154 -0.019067477 -0.008526075 0.067170106 -0.1666706 -0.11353795 0.106024355 0.14963093 0.1482803 0.051244114 -0.1283393 0.11365929 0.109544665 0.04241581 -0.10018767 -0.019822925 -0.0162796 0.02350823 0.16571571 -0.121536486 0.06571261 -0.008051334 -0.08104929 0.025021952 -0.08330378 -0.0907204 -0.009081242 0.1510521 0.07825494 -0.07464318 0.04284385 -0.15586083 0.011005362 0.15662229 0.15474106 -0.20154253 -0.019292872 -0.015995378 0.06107113 -0.039263487 -0.27991742 -0.06742313 0.009067061 -0.2132064 0.005182909 0.17130396 0.033212252 0.15034623 -0.09962264 -0.10459044 -0.1612737 -0.058549423 -0.07665674 0.06767917 0.15192877 -0.024008526 0.01574102 -0.1102715 -0.053182885 -0.03165786 -0.072491415 -0.06443111 0.1307274 -0.035586312 -0.070942886 0.022944592 0.032649647 -0.086170115 -0.18783706 -0.11423462 0.12749086 -0.0399709 -0.064241014 0.015953548 0.12249063 0.014483357 0.16161993 0.15308902 0.018681256 0.094777666 0.058698084 -0.045407154 0.068251655 -0.014487684 0.06017303 0.044119794 -0.0026592421 -0.07934881 -0.2671987 0.17947097 0.04634915 -0.12826712 0.055627555 -0.025464533 0.081624895 -0.02586755 0.18281126 -0.017725784 0.17150074 0.0004350937 -0.102822 -0.044436663 0.020124597 0.10378957 -0.05245174 0.1837835 0.07638764
24 0.22409265 0.0042454842 -0.19698311 0.11794254 -0.022642381 -0.034215823 -0.08645447 -0.12899807 0.04982032 -0.06663787 0.065687254 -0.063577265 0.099746704 -0.15707411 0.1399463 0.06111401 0.1375403 0.058645144 0.13154203 0.026347293 0.040114503 0.037572734 0.021038564 -0.07648459 0.057032626 -0.21502407 -0.16973144 0.17619035 0.15174651 0.1268433 0.13878421 -0.18765174 0.06960691 0.045193523 0.09709929 -0.11672586 -0.011502936 -0.012949846 0.07178599 0.2022329 -0.0966032 0.014025518 -0.01993513 -0.08306295 0.020128096 -0.052147936 -0.038635895 0.008097948 0.15898152 -0.007445989 -0.13741012 0.12624082 -0.14786208 0.10222784 0.09677629 0.1389387 -0.28720978 -0.033030394 -0.061543662 0.000115529634 -0.045902863 -0.25141844 -0.0902213 0.012727552 -0.29130057 -0.06388763 0.19079047 0.068197295 0.17030711 -0.16446625 -0.114829786 -0.18220851 0.00056473096 -0.12396275 0.050000716 0.16621692 -0.03698255 0.08776788 0.022549186 -0.056298245 -0.09569329 -0.019039357 -0.04228807 0.15753485 -0.011466211 -0.08914499 -0.05883067 -0.020353243 -0.13727634 -0.15427598 -0.12672439 0.12767713 0.008713921 0.026427705 0.044452667 0.05869396 0.0066608423 0.1791062 0.1202622 -0.064185224 0.0642226 0.08547026 0.014266528 0.04685731 0.10926384 0.11968957 -0.1460676 0.01832166 0.0014760437 -0.26046818 0.10845884 -0.0043911384 -0.038018543 0.051377047 -0.06982373 -0.03796098 0.027197631 0.14267072 -0.03399632 0.19770645 0.026647883 -0.09599498 0.0133526465 0.060757294 0.15849245 -0.06404587 0.19674404 0.10806493
6 0.05252167 -0.08777174 -0.084302485 0.11466802 -0.18569598 0.12636288 -0.08007442 -0.18064773 0.16842905 0.01821737 -0.052413035 0.14474869 0.13888487 -0.14510986 0.30870652 0.18001856 0.042427503 0.07731186 -0.051396616 0.054619294 -0.19706954 -0.07752477 -0.058875512 0.051850818 0.0663655 -0.107206926 -0.05798313 0.030874541 0.14392391 0.16368143 -0.031502746 -0.06676822 0.16449514 0.1718998 -0.0046330644 -0.087450475 -0.018482884 -0.016401408 -0.015603744 0.14481275 -0.15138152 0.116534404 -0.0057863574 -0.0878104 0.024278931 -0.12206078 -0.14649437 -0.01052017 0.13572022 0.16608803 -0.022082955 -0.031414017 -0.16434452 -0.0652431 0.23769885 0.1749112 -0.13682918 -0.018258285 0.008559223 0.13200721 -0.039698772 -0.32664993 -0.043154623 0.0034626783 -0.14239453 0.07207081 0.15101759 -0.0017864921 0.14542872 -0.03985388 -0.0941916 -0.16504355 -0.11559432 -0.024097186 0.08490032 0.14077376 -0.010019461 -0.04419467 -0.24373768 -0.067550614 0.015571549 -0.13246161 -0.08372387 0.11365318 -0.05027487 -0.067172326 0.10529487 0.09631352 -0.040770262 -0.22965197 -0.105039254 0.1180015 -0.07738704 -0.14614284 -0.014183911 0.18329926 0.022320826 0.14493547 0.20363699 0.0851168 0.14545645 0.01725087 -0.10612082 0.10113278 -0.13375497 0.014741023 0.21449155 -0.03899167 -0.17307043 -0.2894124 0.26643658 0.101869434 -0.23029424 0.06681832 0.0091192685 0.19920799 -0.07558261 0.23969078 0.007896091 0.16333494 -0.021539591 -0.12457598 -0.08577527 -0.024115214 0.061640695 -0.04258943 0.18301398 0.035567626
7 0.051382322 -0.09877723 -0.07843669 0.11552373 -0.19909418 0.14366063 -0.08457403 -0.19012736 0.18305509 0.029648695 -0.06398949 0.15793493 0.146754 -0.154124 0.32403547 0.19274868 0.043448362 0.08633327 -0.05893662 0.053933263 -0.21160516 -0.08824879 -0.065800846 0.060423985 0.07609903 -0.10415274 -0.05300657 0.02400402 0.15069336 0.16359346 -0.04023949 -0.06859774 0.18260455 0.18479623 -0.012910818 -0.09467022 -0.011617572 -0.02194567 -0.026861643 0.14890768 -0.1531982 0.12312826 -0.0054725534 -0.09484305 0.0308998 -0.12857087 -0.15571931 -0.013473785 0.13930607 0.18054183 -0.016192935 -0.049350448 -0.17350632 -0.075070456 0.2564302 0.18086179 -0.12720113 -0.020716997 0.011164956 0.14324012 -0.037058104 -0.33604926 -0.039276287 0.006595689 -0.13436003 0.07867688 0.15629719 -0.0041875746 0.1503586 -0.036343876 -0.099275075 -0.17382072 -0.12601912 -0.021823864 0.09394224 0.14087383 -0.0144687295 -0.04505431 -0.2656127 -0.0727851 0.024886724 -0.1396003 -0.08467334 0.121353686 -0.04755665 -0.072004884 0.11179204 0.1037859 -0.03250589 -0.24101436 -0.10125101 0.12050221 -0.07631158 -0.16132146 -0.018130139 0.19657055 0.023940293 0.15063936 0.212532 0.09889586 0.15468436 0.01629573 -0.11879829 0.1054754 -0.14644675 0.0034981472 0.23540579 -0.04783766 -0.18629275 -0.29265314 0.28550428 0.10885905 -0.24719535 0.06323798 0.012076465 0.21462472 -0.08167841 0.24264307 0.005677186 0.16925432 -0.026259594 -0.12995842 -0.094798364 -0.030324193 0.05678849 -0.04236169 0.1883218 0.026867142
8 0.11914631 -0.060216166 -0.120597474 0.12436903 -0.13410594 0.08063879 -0.08686273 -0.17306736 0.13660236 -0.0050900867 -0.0124150105 0.0839066 0.12976588 -0.15747152 0.25829807 0.14765316 0.08078757 0.07441796 0.0076615307 0.046522617 -0.12007727 -0.04168445 -0.033110056 0.015029143 0.07154236 -0.15624705 -0.10807251 0.084482245 0.1563569 0.15872873 0.033400856 -0.120249614 0.1420238 0.13775371 0.028275209 -0.10202407 -0.020444714 -0.022196459 0.014053299 0.1640391 -0.14519145 0.08024306 -0.0077116108 -0.091713265 0.024809403 -0.096250646 -0.114724495 -0.0122166965 0.15635735 0.11112719 -0.065366805 0.023170084 -0.1708551 -0.014113577 0.19333819 0.17663266 -0.18869317 -0.020099184 -0.007364141 0.08993788 -0.036149234 -0.31623533 -0.06937231 0.015177136 -0.20355766 0.030599061 0.17929377 0.027804663 0.16167337 -0.087590165 -0.102409475 -0.17512059 -0.08322351 -0.0631645 0.08017665 0.16350964 -0.022322427 -0.0037204619 -0.16289203 -0.06611415 -0.016364958 -0.096891664 -0.074982196 0.13403022 -0.041851413 -0.08015449 0.047130417 0.056936037 -0.0749986 -0.21123584 -0.11961646 0.13093233 -0.054350175 -0.08890644 -0.00011454345 0.14449333 0.018700356 0.16913514 0.17552772 0.042360693 0.12064272 0.04990645 -0.07233606 0.08519668 -0.052787337 0.043225024 0.10310376 -0.013275471 -0.1120825 -0.29202464 0.21674436 0.06283071 -0.166934 0.060445514 -0.02027844 0.12250938 -0.04479538 0.2161108 -0.012952336 0.1839614 -0.0054051983 -0.11767989 -0.059881892 0.010724412 0.089816935 -0.048582733 0.19632739 0.06990745
28 0.19348082 -0.0039611077 -0.17887558 0.11939508 -0.037068058 -0.012404236 -0.081153825 -0.14020951 0.06676198 -0.05513159 0.05021983 -0.03751745 0.10890192 -0.15542376 0.16275607 0.0799926 0.12545621 0.062933706 0.1087913 0.030437991 0.0052161096 0.02218493 0.005851251 -0.059516363 0.05571045 -0.20142852 -0.15669218 0.16407457 0.15183711 0.13585511 0.12023408 -0.17234467 0.074581 0.06815141 0.08801183 -0.10846373 -0.021511761 -0.012941785 0.05885654 0.19676574 -0.110514246 0.02582305 -0.010346894 -0.085519806 0.017772093 -0.063052036 -0.053765208 0.002536497 0.16120288 0.017582953 -0.12995324 0.10329885 -0.15519388 0.07942403 0.10777433 0.14826937 -0.2712966 -0.029293388 -0.04438049 0.01974593 -0.0508433 -0.26817232 -0.09429884 0.01357308 -0.28155974 -0.046900578 0.1912539 0.06315246 0.17178088 -0.15381038 -0.113174595 -0.18229648 -0.010717828 -0.115034394 0.055843968 0.17029002 -0.034680687 0.06741245 -0.009490588 -0.05451689 -0.0822591 -0.04091685 -0.054733478 0.15140858 -0.024543514 -0.084903106 -0.03939307 -0.008112175 -0.13144195 -0.16869946 -0.13402991 0.13754946 -0.009877259 -0.002276811 0.034559585 0.082379535 0.01052828 0.18652289 0.1374744 -0.03945314 0.07686493 0.08502295 0.0013442319 0.05434065 0.08554624 0.10503614 -0.08947403 0.019424438 -0.026554124 -0.26633713 0.12714408 0.006466289 -0.06802413 0.047942385 -0.060495466 -0.00602021 0.008833939 0.1631105 -0.026459707 0.20011745 0.012770933 -0.099426195 0.0023495064 0.056824956 0.14538226 -0.060951173 0.19391496 0.102664724
30 0.22847629 0.0027537083 -0.19563764 0.11732676 -0.01386395 -0.048721448 -0.08678502 -0.11922167 0.04917696 -0.07472576 0.07587723 -0.07628498 0.09673962 -0.15029846 0.12653957 0.0552472 0.13644905 0.057337817 0.13772371 0.027103698 0.053814657 0.043702733 0.023289282 -0.08661719 0.053901177 -0.21332882 -0.1677749 0.17945538 0.1460226 0.11754734 0.14451222 -0.18968217 0.057566654 0.03468687 0.0970875 -0.11077416 -0.017382145 -0.007283393 0.08138847 0.19819786 -0.08736193 0.012104822 -0.021799136 -0.078245185 0.012824333 -0.047225803 -0.024115656 0.0066230856 0.15900058 -0.0249074 -0.1451939 0.13198906 -0.14064984 0.10444696 0.08489097 0.13251333 -0.28562403 -0.0365385 -0.0610386 -0.0147683015 -0.04730616 -0.24061143 -0.092705935 0.009075993 -0.29243127 -0.06336364 0.19225737 0.07245218 0.1705462 -0.16937219 -0.11022907 -0.1754066 0.007282201 -0.13074802 0.04133408 0.16605064 -0.03549522 0.092147775 0.03660195 -0.05200417 -0.094352014 -0.01129954 -0.03754442 0.15725386 -0.005919232 -0.09200886 -0.06109171 -0.029464835 -0.13469793 -0.14840202 -0.13714008 0.13055533 0.010994628 0.039088357 0.04294931 0.05417179 0.011638762 0.18483326 0.11432129 -0.0693825 0.049969506 0.094547644 0.015214835 0.037287384 0.12385779 0.120457694 -0.16302657 0.022246592 0.010907784 -0.254303 0.09621543 -0.013319389 -0.02343758 0.048708305 -0.075122885 -0.05391866 0.03056859 0.12970851 -0.035153124 0.1936021 0.029938433 -0.08998073 0.023956032 0.06999677 0.15703127 -0.05899991 0.19617575 0.11395246
9 0.16392316 -0.026077917 -0.14969517 0.1101202 -0.0672702 0.009626035 -0.08271605 -0.13793729 0.08925064 -0.03713967 0.033058785 0.004560788 0.10705236 -0.14872369 0.18283099 0.09530277 0.104119584 0.06474591 0.07032789 0.032000743 -0.035368793 0.0031156011 -0.008526419 -0.036417425 0.061839335 -0.17974657 -0.13362436 0.12715825 0.14612146 0.13021196 0.085574545 -0.14980924 0.09651711 0.08010303 0.06462378 -0.104075715 -0.014812548 -0.01797216 0.039365277 0.1807957 -0.11308272 0.04322823 -0.011599358 -0.0775255 0.02321906 -0.06631357 -0.06784917 -0.0040112687 0.15368192 0.044577673 -0.103020675 0.072080866 -0.15271714 0.041298095 0.13198115 0.15073341 -0.23186141 -0.023636112 -0.035705857 0.03599036 -0.047731012 -0.26823583 -0.07760782 0.012043951 -0.24040607 -0.017317748 0.18239029 0.045721628 0.16167179 -0.12669265 -0.10850012 -0.17519633 -0.032831542 -0.09003281 0.058545597 0.151243 -0.026299223 0.037876602 -0.053441323 -0.05109074 -0.0539356 -0.050927393 -0.053194575 0.13125905 -0.0260322 -0.07510361 -0.0023028287 0.01659124 -0.10296874 -0.16714725 -0.116883054 0.12242609 -0.021812467 -0.024203507 0.018715616 0.09307272 0.011250657 0.17096223 0.14170167 -0.008674515 0.08389739 0.06937982 -0.023398412 0.062539324 0.034954645 0.07851097 -0.025740525 0.0063588945 -0.052977517 -0.2642993 0.14814124 0.02497367 -0.09882736 0.053869016 -0.039769314 0.03958707 -0.004341967 0.16703495 -0.024107652 0.18306841 0.01122118 -0.09492724 -0.017185982 0.035156664 0.11845647 -0.051867507 0.19071184 0.082236744
11 0.10011622 -0.07009269 -0.10984802 0.11623741 -0.1441683 0.08563181 -0.08596089 -0.17395698 0.14095323 -0.0034473017 -0.02259871 0.09052291 0.12790357 -0.1468655 0.2649729 0.14965266 0.06733733 0.074528225 -0.00353798 0.04983277 -0.13300434 -0.052485682 -0.033805024 0.014786302 0.06896318 -0.13300091 -0.0829788 0.06984724 0.1465329 0.1518296 0.010321502 -0.094140194 0.14638598 0.14615268 0.02150476 -0.10100379 -0.011166892 -0.01979825 0.008179346 0.16253552 -0.13765487 0.09326309 -0.0072390023 -0.08760843 0.025471598 -0.103462644 -0.11944232 -0.0066635725 0.13693467 0.12259269 -0.05249819 0.0059399046 -0.15681665 -0.022906577 0.20712493 0.16096966 -0.1702138 -0.02431803 -0.0035596688 0.09811834 -0.036619354 -0.3021677 -0.053584352 0.0043164813 -0.17429727 0.035381578 0.16153213 0.014350755 0.15153946 -0.07494501 -0.10299006 -0.1714659 -0.09258217 -0.047167897 0.07575023 0.14296925 -0.022936316 -0.009195528 -0.17035198 -0.07083146 -0.0060843052 -0.101623304 -0.076089 0.12867853 -0.03899633 -0.07207343 0.06227469 0.06703788 -0.060936894 -0.20973127 -0.11422092 0.12262622 -0.05614173 -0.108352385 0.0013380477 0.15317334 0.018063756 0.15264486 0.18335323 0.051394917 0.12648396 0.03741546 -0.07360014 0.091159046 -0.07269236 0.041086916 0.12573406 -0.026469221 -0.12532315 -0.2783168 0.22860254 0.07679057 -0.17984 0.061020393 -0.009809227 0.13993435 -0.049398 0.21054505 -0.00049586775 0.17125043 -0.011014699 -0.11534057 -0.06293452 -0.0064064083 0.08663044 -0.044715665 0.18815984 0.04781138
5 0.03941466 -0.10131465 -0.07307673 0.113042444 -0.20112796 0.14453779 -0.08154473 -0.19198978 0.18587792 0.024905832 -0.06224492 0.16473785 0.14747378 -0.14729592 0.32877102 0.19013745 0.034821413 0.08274325 -0.063977614 0.052921057 -0.22015664 -0.08370722 -0.06446755 0.06572579 0.07625514 -0.09755732 -0.05542673 0.017188195 0.15166487 0.1632623 -0.041781463 -0.056450024 0.18245691 0.18613963 -0.0159714 -0.09655273 -0.016980523 -0.01967967 -0.027332488 0.13975036 -0.16011038 0.1241365 -0.0035293796 -0.094082296 0.025136989 -0.12150707 -0.1584224 -0.01481201 0.13200296 0.18758981 -0.009729938 -0.05223572 -0.16612911 -0.08021973 0.25428206 0.17522697 -0.12507974 -0.018303925 0.017246552 0.14137168 -0.035070837 -0.33605313 -0.043777112 0.005015159 -0.12995502 0.082316115 0.15594882 -0.010072324 0.14558822 -0.035151105 -0.0952962 -0.17059283 -0.132401 -0.0186596 0.08939849 0.13977303 -0.0093065575 -0.055154253 -0.26604515 -0.06702542 0.026974134 -0.13709654 -0.09160836 0.11994913 -0.05085998 -0.06453661 0.12177998 0.104088075 -0.034697853 -0.23675004 -0.10062066 0.11638012 -0.07933527 -0.16157606 -0.020503871 0.19276895 0.024186373 0.14366546 0.2117727 0.10334028 0.15391728 0.013750658 -0.11900349 0.104539804 -0.1591764 0.003493577 0.24662243 -0.044489097 -0.18636379 -0.2891448 0.2819172 0.11046251 -0.24552435 0.0661894 0.023304129 0.21772024 -0.08611285 0.24243778 0.013206601 0.15751475 -0.027797816 -0.12883066 -0.09744104 -0.03239766 0.044606965 -0.040443968 0.18767215 0.030614585
29 0.18792532 -0.012725334 -0.17502412 0.1223311 -0.05010598 -0.00044546064 -0.0849343 -0.14334702 0.074824184 -0.05412928 0.047593955 -0.022131393 0.107042536 -0.15377139 0.17618519 0.08837256 0.11456503 0.06326855 0.098505005 0.03356497 -0.009797828 0.012669789 0.0057383445 -0.053250547 0.061256774 -0.19776659 -0.15353476 0.1538732 0.1540582 0.13526362 0.10240169 -0.16923636 0.08160898 0.07109879 0.08049118 -0.10802607 -0.015377308 -0.012696367 0.05595865 0.1895009 -0.10597727 0.0365427 -0.014496773 -0.083373815 0.015599034 -0.061577998 -0.055277817 0.0033739922 0.15715973 0.02590654 -0.11825042 0.0942743 -0.15069652 0.06823585 0.12419607 0.14794865 -0.2543094 -0.03109826 -0.045461636 0.024129625 -0.04783324 -0.27061713 -0.08516301 0.013415105 -0.2652904 -0.037899155 0.18903576 0.05805055 0.16660535 -0.13885842 -0.10994787 -0.17902677 -0.024346737 -0.11368679 0.05564776 0.16857418 -0.03590435 0.060804762 -0.028250242 -0.06148076 -0.07419233 -0.046240833 -0.05654104 0.15211971 -0.022386739 -0.09175386 -0.02671233 -0.0017828211 -0.120864056 -0.18242218 -0.13578252 0.13471618 -0.014652817 -0.010277501 0.033351652 0.09139649 0.014299313 0.18093298 0.13826494 -0.034108687 0.07650903 0.075233325 -0.0075094365 0.058043636 0.069100656 0.09447816 -0.0726715 0.013610621 -0.030293524 -0.2655943 0.13550681 0.016996242 -0.07773527 0.04950992 -0.052110147 0.009030958 0.0044618174 0.16106571 -0.027709402 0.18852457 0.016665569 -0.100552835 -0.009451424 0.048640214 0.13950123 -0.05966161 0.19317679 0.093220286
31 0.18516931 -0.015466711 -0.16348019 0.10938237 -0.050294068 -0.005406311 -0.08593576 -0.13470426 0.07096861 -0.052302215 0.047933444 -0.023988802 0.10382207 -0.1469432 0.16289361 0.08482207 0.11224837 0.063707605 0.09585889 0.032456566 -0.008383894 0.0152411405 0.00067393587 -0.04739246 0.05908752 -0.18767725 -0.13646089 0.14608632 0.14392313 0.13215575 0.104356736 -0.15723518 0.07670554 0.060231492 0.07118503 -0.1045679 -0.019072022 -0.011395643 0.055875294 0.17902738 -0.105226904 0.028815085 -0.013326683 -0.07826395 0.019785702 -0.061890997 -0.05081608 0.0026885965 0.14826149 0.01749235 -0.11353086 0.08897577 -0.1415116 0.06673452 0.10965383 0.14120658 -0.24348077 -0.028124012 -0.0434192 0.01725087 -0.04279324 -0.25032806 -0.075024106 0.011075815 -0.2502644 -0.036071632 0.17988978 0.056112263 0.15680972 -0.13339834 -0.10432649 -0.16451465 -0.018657506 -0.105867654 0.05336113 0.15951456 -0.029453574 0.062194165 -0.027236683 -0.057039753 -0.07085483 -0.036337156 -0.051044904 0.13837326 -0.015955575 -0.07580847 -0.02293412 0.00020216429 -0.113491796 -0.16326888 -0.12483202 0.12754904 -0.009131496 -0.006180209 0.031031389 0.083775796 0.012917634 0.17038059 0.12300392 -0.03039288 0.06848953 0.0717487 -0.011834042 0.051042344 0.061474655 0.095943585 -0.06971063 0.015692255 -0.03183204 -0.24969018 0.1284626 0.010048118 -0.06970605 0.051165 -0.05185241 0.008677196 0.0028843593 0.15189202 -0.022391567 0.1756444 0.013103414 -0.0903338 -0.006183568 0.050370093 0.127962 -0.052004762 0.18538786 0.0886953
20 0.16767366 -0.029463585 -0.15243015 0.11895515 -0.07877192 0.024353446 -0.0857901 -0.1542756 0.096348934 -0.035844155 0.02714527 0.009805664 0.11436251 -0.15744968 0.20167099 0.10966446 0.101313375 0.06613852 0.06135074 0.033610467 -0.04526923 -0.000982033 -0.01160073 -0.026809163 0.0631164 -0.18112628 -0.13581158 0.128725 0.15563715 0.14594282 0.081193715 -0.15452313 0.10024118 0.09159085 0.05775434 -0.10666329 -0.014873961 -0.018458903 0.03707903 0.17596419 -0.11934522 0.05402696 -0.013245848 -0.085478716 0.019664222 -0.07194242 -0.0734395 -0.0015061724 0.15501758 0.05360751 -0.099018596 0.06904184 -0.15541169 0.035430066 0.1384208 0.15539558 -0.22678594 -0.023992825 -0.033080824 0.04272927 -0.04220163 -0.2757552 -0.08051434 0.00814414 -0.24075611 -0.012889972 0.1784676 0.042176314 0.16478086 -0.11839098 -0.10544499 -0.17361838 -0.038026284 -0.09079585 0.056627676 0.15714201 -0.031559046 0.03669325 -0.071157075 -0.054604307 -0.052283715 -0.058484323 -0.058194242 0.13852389 -0.027048042 -0.081211075 0.0016466919 0.020499693 -0.0976658 -0.17751838 -0.12605184 0.13157359 -0.029474294 -0.037914053 0.024348529 0.10448851 0.014028827 0.1718564 0.1483128 -0.005972923 0.08902459 0.06418871 -0.02672066 0.06621239 0.025899604 0.07774786 -0.015020997 0.00767099 -0.061733738 -0.26361454 0.16262694 0.03227471 -0.108170666 0.05174305 -0.037629813 0.043457326 -0.014381468 0.18036701 -0.021283273 0.18466425 0.006559049 -0.09812425 -0.02258794 0.037533537 0.12163456 -0.05623852 0.19204526 0.08588402
26 0.18653631 -0.007948296 -0.17732304 0.11899861 -0.044632915 -0.0023139154 -0.08328357 -0.14227219 0.07234382 -0.050848555 0.046842266 -0.033785664 0.109368496 -0.15228407 0.16676736 0.08137688 0.12157427 0.064568244 0.10111111 0.032192606 -0.0017767255 0.014312196 0.0017353958 -0.061048176 0.051869307 -0.19364142 -0.15021735 0.15712625 0.15242566 0.12834601 0.111081235 -0.16898529 0.084520556 0.06476526 0.07916792 -0.11080873 -0.015699537 -0.01333307 0.05652225 0.19369487 -0.10405844 0.028245872 -0.01581975 -0.07964953 0.018918375 -0.061897323 -0.060325146 0.0066465414 0.15529487 0.026245864 -0.1214732 0.09595041 -0.15073816 0.07500244 0.11590929 0.15010495 -0.26322663 -0.028471448 -0.04902804 0.020623274 -0.046435628 -0.26810545 -0.08911055 0.0067397524 -0.26567173 -0.034455862 0.1836358 0.055077076 0.16285755 -0.14656484 -0.107652776 -0.18310635 -0.02334674 -0.105256245 0.05030348 0.15814069 -0.033877417 0.06700192 -0.017803341 -0.06423222 -0.07955106 -0.042147193 -0.0507941 0.14887673 -0.020800676 -0.08688047 -0.023818607 0.0034930645 -0.12586921 -0.17988683 -0.12580611 0.1360626 -0.01383884 -0.015335652 0.037686005 0.08885711 0.0075117606 0.17766185 0.1351559 -0.039207 0.0782554 0.072785 -0.0005638143 0.057555065 0.07132381 0.10177307 -0.08064774 0.014309886 -0.0264428 -0.2693346 0.13624385 0.015263867 -0.0729834 0.0496046 -0.05603591 0.0016100028 0.011339075 0.16325858 -0.023878433 0.19060248 0.015564018 -0.09679869 0.0006319782 0.042081546 0.14176042 -0.058690436 0.1882233 0.09796437
25 0.20814136 0.007850051 -0.19243182 0.12358423 -0.02654412 -0.02178416 -0.08526833 -0.13746707 0.0584434 -0.061381046 0.059009638 -0.05560465 0.10515008 -0.1565926 0.1487167 0.0724495 0.12764321 0.06321324 0.1187335 0.023580292 0.030499315 0.027779985 0.011681991 -0.07520365 0.050873786 -0.2162798 -0.1639517 0.17300366 0.15471168 0.13232759 0.1301867 -0.18496871 0.062842704 0.054494504 0.09794677 -0.10522698 -0.0147314435 -0.020161739 0.0651836 0.2017341 -0.09693281 0.02231922 -0.014969805 -0.08430669 0.0185646 -0.055983163 -0.040946648 0.004978733 0.1611231 0.0041840407 -0.13498098 0.12131697 -0.15454751 0.09232513 0.09653736 0.1427292 -0.27974388 -0.032108508 -0.05337278 0.009104245 -0.04790895 -0.25987777 -0.094631605 0.011551457 -0.28011248 -0.053513803 0.18529335 0.06627057 0.16992873 -0.16318904 -0.11058602 -0.18147115 -0.0043854676 -0.12386302 0.04728557 0.16281836 -0.038036495 0.08489038 0.015252781 -0.052383494 -0.091572925 -0.033753905 -0.04766855 0.1553683 -0.0196729 -0.08718205 -0.052628156 -0.0134415245 -0.13626367 -0.16570503 -0.12898701 0.13957682 -0.0063376524 0.009230801 0.046050273 0.07095795 0.010651085 0.18201058 0.12487389 -0.055010676 0.06752233 0.08684705 0.010651125 0.050821282 0.10529479 0.111440964 -0.12276567 0.021669991 -0.0065888884 -0.2607077 0.11237737 0.0021223184 -0.048380934 0.043920297 -0.06959027 -0.025445333 0.022501852 0.15086801 -0.03634269 0.19260456 0.01920682 -0.08992274 0.009760076 0.05600416 0.15606765 -0.06421473 0.18867105 0.10423756
18 0.11441684 -0.04603974 -0.11789627 0.11287118 -0.11777855 0.065109774 -0.07800319 -0.15515526 0.120758556 -0.011782217 -0.008510043 0.058049556 0.12140202 -0.14691237 0.23166922 0.12584417 0.07781731 0.06923507 0.017020423 0.037942417 -0.10238984 -0.03088522 -0.030740764 0.0031238026 0.06845176 -0.15169816 -0.09765204 0.08659609 0.14587562 0.14553462 0.03786404 -0.11774622 0.12095559 0.121104084 0.03611878 -0.09023901 -0.021057287 -0.018399922 0.01496077 0.1568752 -0.13106689 0.068564184 -0.008295041 -0.08269561 0.022815604 -0.087541044 -0.10082218 -0.012331234 0.1409365 0.09446039 -0.060608454 0.027735284 -0.15759093 -0.006442072 0.1706765 0.15877028 -0.18458219 -0.017369429 -0.009725436 0.07002401 -0.035836115 -0.28452486 -0.062127654 0.009838327 -0.19496067 0.01609893 0.16762063 0.027512524 0.14747393 -0.084465906 -0.09767854 -0.16134728 -0.06863157 -0.06073033 0.06563457 0.14873439 -0.017086219 0.008923962 -0.1348656 -0.0547976 -0.024639701 -0.08253681 -0.068527944 0.12154759 -0.03914423 -0.06603821 0.035668157 0.04531275 -0.07207065 -0.18498239 -0.10862408 0.123186156 -0.046999693 -0.07563953 0.0032401811 0.13172562 0.011264591 0.15514497 0.16183297 0.036500562 0.10409188 0.044763695 -0.05845028 0.07670767 -0.036694568 0.04920697 0.07662539 -0.008448794 -0.09807703 -0.26112738 0.19161294 0.053672336 -0.1506015 0.057900235 -0.01684344 0.106101625 -0.035017636 0.19537099 -0.010649694 0.17051466 -0.0018654267 -0.099914104 -0.051374 0.016164312 0.091621034 -0.050282184 0.18037897 0.06433896
21 0.22172283 0.0013986204 -0.1917085 0.12096069 -0.026868738 -0.033386447 -0.09242253 -0.1347248 0.05825708 -0.06365216 0.06002354 -0.05135607 0.09998293 -0.154453 0.1400021 0.07041813 0.1320085 0.061075337 0.126692 0.029894354 0.028873026 0.035210107 0.020245984 -0.073919356 0.06202152 -0.21239448 -0.15958811 0.17162938 0.14294757 0.1323779 0.13115752 -0.18221804 0.0678292 0.052036256 0.093136735 -0.11343146 -0.01700202 -0.015476859 0.07218785 0.19689728 -0.09787564 0.018736966 -0.015431317 -0.082060836 0.016981866 -0.053630177 -0.03692117 0.0034982054 0.15789722 -0.0109162945 -0.13130711 0.11921082 -0.14532264 0.090963304 0.09288789 0.14014441 -0.27314165 -0.03017352 -0.054118298 -0.00014120899 -0.049680218 -0.25204659 -0.08650767 0.010577783 -0.28448188 -0.054308165 0.19153713 0.0658554 0.16587475 -0.15873507 -0.111144185 -0.17682749 0.0007499072 -0.11822828 0.044528846 0.1608509 -0.03353594 0.081314065 0.017395794 -0.051100075 -0.07965679 -0.024713036 -0.0400648 0.1474437 -0.012364226 -0.08120422 -0.053733364 -0.015854418 -0.1261888 -0.14373967 -0.12807025 0.12519522 0.0080317855 0.025919707 0.034449905 0.058021255 0.01443781 0.1783657 0.11923075 -0.052473724 0.064318225 0.08762045 0.0026800605 0.044341635 0.10294339 0.11451417 -0.13229628 0.022738839 -0.0022578468 -0.25511473 0.10827989 -0.0021866616 -0.037174325 0.04802041 -0.070901684 -0.028478092 0.020758875 0.14362983 -0.0326698 0.19651635 0.026249282 -0.08895209 0.008861792 0.058111686 0.15457346 -0.055814218 0.18936038 0.1090871
13 0.08233217 -0.066041835 -0.09346633 0.11331243 -0.14553276 0.09956163 -0.075573534 -0.16774909 0.14335549 0.0062742354 -0.02982141 0.10438015 0.128692 -0.14170648 0.26750642 0.1498702 0.061085757 0.07665917 -0.018608415 0.042498793 -0.1480071 -0.052495938 -0.049082838 0.03248511 0.06730728 -0.1302201 -0.08416433 0.06163028 0.14440258 0.1534894 0.0035274862 -0.09526014 0.1471018 0.14413786 0.015705638 -0.09339114 -0.014959961 -0.018001514 -0.003012952 0.1447685 -0.1424871 0.0890455 -0.008721709 -0.08872352 0.026613163 -0.10020888 -0.12501594 -0.012364161 0.14113016 0.13331583 -0.043151025 -0.0008127031 -0.15642782 -0.03854258 0.20499524 0.16759688 -0.15370376 -0.017641678 0.0016262594 0.1026839 -0.032008357 -0.30738866 -0.05891788 0.01155635 -0.1697129 0.04413011 0.16216145 0.015543135 0.14056109 -0.0599637 -0.09718038 -0.1580785 -0.08923877 -0.051543966 0.07418681 0.14671655 -0.013647883 -0.020428183 -0.18538299 -0.06458445 -0.008755422 -0.1026616 -0.07737727 0.12090179 -0.043047227 -0.068782285 0.067781076 0.06565698 -0.059328444 -0.21405455 -0.11003455 0.122604586 -0.06583042 -0.11335997 -0.00400025 0.1563763 0.015565487 0.15040521 0.17639269 0.063484624 0.1238161 0.031677123 -0.07524122 0.092434384 -0.08392095 0.027876252 0.14460568 -0.017162437 -0.12614678 -0.27310172 0.2185055 0.07853098 -0.18603982 0.061928723 -0.00031609758 0.15064533 -0.059830498 0.21098904 -0.00029341187 0.16100469 -0.014834819 -0.11325824 -0.074212 -0.008562446 0.06958216 -0.044577546 0.17567289 0.05129325
17 0.05055999 -0.10312724 -0.085326836 0.120418295 -0.21102382 0.15197058 -0.08188334 -0.20443442 0.19279104 0.02680203 -0.06824636 0.16844997 0.1553472 -0.1615019 0.3432362 0.19776028 0.040969055 0.091356285 -0.05963901 0.0536193 -0.22668907 -0.089022204 -0.071274176 0.06473385 0.077586316 -0.1175238 -0.059375048 0.031439338 0.1630123 0.17549336 -0.03935599 -0.06917734 0.18736526 0.1997083 -0.009118336 -0.10302733 -0.01604132 -0.021989455 -0.024650237 0.15562083 -0.16698098 0.13306713 -0.0050719148 -0.09752645 0.028565042 -0.13539353 -0.16593757 -0.009165297 0.14957476 0.19206326 -0.016510177 -0.052382443 -0.18097602 -0.08336286 0.2718317 0.18723989 -0.14187707 -0.016568208 0.015319139 0.14782202 -0.041947164 -0.35712457 -0.047307983 0.0070138867 -0.1436759 0.08652497 0.16238134 -0.002640514 0.15321177 -0.03525954 -0.1035905 -0.18212214 -0.1379111 -0.024098111 0.09720124 0.14916085 -0.013248861 -0.053832587 -0.27991557 -0.07840952 0.02609129 -0.14286782 -0.098746255 0.12940687 -0.056318145 -0.07335372 0.1234947 0.1036226 -0.037078854 -0.2588565 -0.11322385 0.12855093 -0.083649404 -0.1711513 -0.019943694 0.20551199 0.021599827 0.16150445 0.21852945 0.10230223 0.15880288 0.018339634 -0.123251006 0.1172813 -0.15989196 0.0053663217 0.24982661 -0.043046325 -0.18977273 -0.3120287 0.2946523 0.11509847 -0.25884238 0.073371165 0.021785954 0.22842464 -0.08803532 0.259647 0.011702124 0.17302269 -0.02485047 -0.13117035 -0.10148283 -0.033941865 0.05479991 -0.04364184 0.1985252 0.034827653
19 0.20859998 -0.00033953268 -0.18028149 0.117915645 -0.023707727 -0.0347428 -0.086446166 -0.12320193 0.05765465 -0.062913544 0.06242219 -0.054082833 0.098871134 -0.15147081 0.14059232 0.06368373 0.1257996 0.05755811 0.11667427 0.031112174 0.030982893 0.03449505 0.016180828 -0.07006782 0.058409028 -0.20466943 -0.15898459 0.16311418 0.14176665 0.12242622 0.1314123 -0.18075748 0.064847544 0.04612918 0.08714884 -0.1096785 -0.012470205 -0.011114898 0.07224112 0.19131695 -0.09675183 0.016265405 -0.017364254 -0.07755398 0.013904752 -0.04760811 -0.03787014 -0.00030882447 0.15029418 -0.010320015 -0.13198881 0.11378341 -0.14034496 0.09324983 0.08555688 0.13444467 -0.2641186 -0.030771844 -0.05500047 -0.0032317897 -0.042390976 -0.23702039 -0.08898325 0.017463671 -0.27369133 -0.05958458 0.18390651 0.06245355 0.16428497 -0.15754879 -0.10440874 -0.1696573 -0.0040394864 -0.11818829 0.04816885 0.16275722 -0.036127064 0.0834141 0.012982078 -0.05455415 -0.08823679 -0.022716992 -0.040836886 0.15334626 -0.015762549 -0.08709989 -0.053690378 -0.015431684 -0.12932992 -0.15288007 -0.13147125 0.13198866 0.0033385046 0.0248685 0.036632515 0.066200316 0.012303832 0.1736447 0.112199314 -0.055945974 0.059837528 0.08489007 0.010736941 0.03933148 0.10106689 0.10722969 -0.12819088 0.0234038 0.00049524475 -0.24472117 0.10241134 -0.0069625927 -0.0372998 0.04800161 -0.06576292 -0.03501135 0.020781951 0.13948126 -0.03642354 0.18632226 0.024297811 -0.09133737 0.009684151 0.059290063 0.14438769 -0.060820412 0.18584046 0.10800713
16 0.2247784 0.0031408323 -0.19260179 0.115156576 -0.021272186 -0.04141657 -0.09199817 -0.12791023 0.049548082 -0.0701816 0.07254957 -0.06913165 0.098859385 -0.157091 0.13335387 0.06152483 0.13769929 0.061586875 0.13431196 0.02948322 0.042079646 0.035672594 0.022372667 -0.07917028 0.059011247 -0.21123753 -0.16506276 0.17637405 0.14630997 0.12728757 0.14079298 -0.18729696 0.062908515 0.04062797 0.092882805 -0.11668465 -0.0100944815 -0.010674615 0.074232504 0.1987604 -0.09516752 0.011348768 -0.014997583 -0.078839496 0.012781175 -0.046296757 -0.031106126 0.0043184627 0.15570235 -0.015752012 -0.14294447 0.12281212 -0.14037089 0.09932507 0.088585295 0.1346986 -0.28351575 -0.03383297 -0.06033198 -0.008771572 -0.047167618 -0.24483933 -0.09349335 0.011328346 -0.28567964 -0.0663082 0.19243234 0.069774576 0.17251547 -0.1703528 -0.1140172 -0.183882 -0.0009186106 -0.12517408 0.04599367 0.16423547 -0.043314088 0.08721181 0.030124608 -0.05646872 -0.0957451 -0.019256977 -0.043830253 0.15229781 -0.009808591 -0.089189544 -0.05616169 -0.019347716 -0.13122377 -0.15356913 -0.13211365 0.12693854 0.007566624 0.031749666 0.04205999 0.059919856 0.015349213 0.18442541 0.11516709 -0.06075634 0.054793857 0.087638065 0.010522817 0.044738907 0.11183768 0.117144994 -0.14757796 0.021340474 0.0034549502 -0.25147432 0.101831146 -0.0104536675 -0.03455967 0.047110226 -0.07528353 -0.040481996 0.030664373 0.13520586 -0.031587966 0.19579042 0.025298027 -0.09343312 0.017977998 0.06300631 0.15707517 -0.05703458 0.19581454 0.10908893
15 0.21836929 0.002896694 -0.19216178 0.11683569 -0.027561346 -0.034191627 -0.08991257 -0.13503635 0.05631552 -0.06600449 0.061788455 -0.0563161 0.09809512 -0.15264064 0.14177448 0.06560037 0.1328065 0.06135459 0.12661745 0.025425669 0.03583104 0.029775845 0.019297741 -0.0728834 0.06431571 -0.2134618 -0.15946572 0.17561579 0.14766608 0.12651269 0.13905153 -0.19119482 0.06854222 0.04860981 0.09524492 -0.112114936 -0.016847398 -0.014758043 0.071972184 0.20027544 -0.10226043 0.015639998 -0.019983426 -0.082528226 0.019861324 -0.05391254 -0.037690956 0.0056799524 0.15818681 -0.003520043 -0.13601317 0.12108502 -0.14239763 0.095646575 0.09599093 0.14311357 -0.2801492 -0.033275027 -0.058632597 -0.0040102154 -0.044344723 -0.25248492 -0.093734056 0.015888846 -0.2829334 -0.06200308 0.19146267 0.069257334 0.16512197 -0.15955527 -0.10514292 -0.18214326 -0.006236779 -0.12412868 0.045910608 0.1658468 -0.039361898 0.08564583 0.019881645 -0.054538615 -0.089790985 -0.020224644 -0.046076514 0.15617411 -0.010846685 -0.08813005 -0.056932043 -0.020453397 -0.12810306 -0.15477829 -0.13115868 0.12723994 0.00096437463 0.025063258 0.03971288 0.06402369 0.011855659 0.1794163 0.11513624 -0.05217871 0.06014114 0.08493323 0.010225796 0.046581253 0.10855743 0.11251778 -0.1379984 0.018596685 0.003435584 -0.25334454 0.10336218 -0.008790266 -0.038883924 0.05128085 -0.07410054 -0.037797906 0.02260567 0.14150493 -0.031462263 0.19311501 0.020129029 -0.0915004 0.012692702 0.061187442 0.15450068 -0.057007015 0.18841963 0.109012656
10 0.14467221 -0.029515693 -0.13901328 0.11814587 -0.09178772 0.035134867 -0.08335963 -0.14865611 0.10464975 -0.023994997 0.015654314 0.030570207 0.109733194 -0.1444564 0.20641015 0.11642733 0.09483854 0.06990195 0.04449506 0.032663308 -0.06485724 -0.009124677 -0.018215166 -0.017268153 0.0652424 -0.16383678 -0.11593878 0.11299068 0.14390343 0.1359179 0.06360669 -0.13612893 0.108819574 0.09897755 0.049657457 -0.09500149 -0.02080011 -0.02188422 0.026676508 0.16400748 -0.12171025 0.05238153 -0.007419536 -0.081242494 0.022739885 -0.07262939 -0.08139202 -0.009643078 0.14552993 0.06947166 -0.078664996 0.052818723 -0.15451406 0.023456562 0.14951442 0.15187994 -0.20325339 -0.020042505 -0.02241979 0.051645 -0.03622842 -0.27152967 -0.07023473 0.015767787 -0.21481888 0.0013542405 0.17049691 0.033951156 0.14569153 -0.107200235 -0.098268576 -0.15985504 -0.045977004 -0.079604805 0.057896342 0.14590435 -0.025514886 0.025576629 -0.09247794 -0.057150535 -0.04179086 -0.069070786 -0.060269438 0.12906176 -0.027348991 -0.07527779 0.010571369 0.023621308 -0.09017357 -0.17445906 -0.11032084 0.12198325 -0.034769833 -0.054707777 0.017924687 0.10704982 0.01322727 0.1601074 0.14326435 0.0083107045 0.095119074 0.06055373 -0.037901737 0.06402128 0.0037038147 0.067579664 0.017638978 -0.0020638225 -0.067529686 -0.25436524 0.1689595 0.039409846 -0.117247805 0.05309977 -0.032529604 0.069276065 -0.021797702 0.17546299 -0.016157387 0.16658206 -0.0009405817 -0.09642904 -0.033953562 0.026243862 0.102582425 -0.05419042 0.17401604 0.07541451
23 0.2188993 -3.9052407e-05 -0.18861997 0.114903904 -0.024927456 -0.0385765 -0.08955753 -0.12579425 0.053730026 -0.06394061 0.067949735 -0.061641484 0.09677555 -0.15607612 0.13741171 0.062424462 0.13441207 0.05483078 0.13068622 0.027134411 0.040496927 0.0327267 0.020942334 -0.07695762 0.06002671 -0.20969604 -0.15856607 0.17537232 0.14845297 0.12791751 0.13811138 -0.1870397 0.0673591 0.040432904 0.09354403 -0.112780064 -0.009308376 -0.015150539 0.07065237 0.19764149 -0.09680404 0.017739637 -0.01868825 -0.072754584 0.017554168 -0.048698492 -0.03520364 0.0065962123 0.15661378 -0.010326016 -0.1344155 0.1185745 -0.14016931 0.093394995 0.08818774 0.13808179 -0.27781263 -0.033455923 -0.051486664 0.0010537668 -0.045467533 -0.24201383 -0.0900489 0.014273003 -0.28605673 -0.06312788 0.18659332 0.07082374 0.17113918 -0.16702752 -0.10546842 -0.18058677 -0.00042570056 -0.11999904 0.042809922 0.15837507 -0.038194757 0.082960606 0.025595482 -0.04938709 -0.08731596 -0.016324757 -0.042836484 0.1478603 -0.008018532 -0.087154455 -0.05400806 -0.02234796 -0.1265962 -0.14835387 -0.13303593 0.12845613 0.009273027 0.030143443 0.035355024 0.05692741 0.008563926 0.17738906 0.11732304 -0.05697062 0.06007922 0.08463987 0.0096159885 0.04104535 0.11262808 0.11645631 -0.14442624 0.025455961 0.005299224 -0.25096527 0.10284894 -0.0064043156 -0.038277287 0.051907655 -0.07491612 -0.03987784 0.023691 0.14463241 -0.030457333 0.19075963 0.026077192 -0.092485465 0.020058932 0.06902017 0.15366568 -0.059589658 0.19698516 0.11278153
22 0.12473316 -0.04684768 -0.12790665 0.11988522 -0.113399796 0.059228446 -0.083462946 -0.162486 0.12018272 -0.012512048 0.00067084876 0.060181852 0.118989505 -0.15439568 0.2360911 0.13225438 0.08364014 0.07578934 0.017417634 0.043999266 -0.09405278 -0.028792871 -0.03036754 0.0057715722 0.06850064 -0.15806192 -0.11261867 0.09479125 0.14958549 0.14580949 0.040159006 -0.12117194 0.12242068 0.120679125 0.03989183 -0.098565675 -0.017381035 -0.016825149 0.019348547 0.15813501 -0.1307277 0.06889144 -0.009846908 -0.08154372 0.025293898 -0.08738039 -0.09443102 -0.0137016885 0.14949936 0.08854391 -0.07124019 0.0304813 -0.16157255 -0.0067543667 0.17173724 0.1582431 -0.1909454 -0.017547512 -0.01490417 0.06662588 -0.04126423 -0.28967842 -0.06827493 0.014966004 -0.20125207 0.01353277 0.16916981 0.02690452 0.15209667 -0.08896643 -0.106020324 -0.16459791 -0.06566002 -0.074928276 0.074053615 0.16092987 -0.022995858 0.011982431 -0.13786577 -0.05587925 -0.029780047 -0.081292614 -0.069122665 0.13113573 -0.03928195 -0.07103068 0.035270512 0.045798935 -0.08013447 -0.2006737 -0.1155294 0.13566676 -0.04493829 -0.07496119 0.009201378 0.13584022 0.0151725365 0.16096002 0.1571452 0.026860625 0.10527404 0.056456856 -0.057098355 0.076806754 -0.026118474 0.053308558 0.070792265 -0.004528445 -0.09078945 -0.26606655 0.1932928 0.05388396 -0.14374861 0.05938039 -0.019674312 0.09812668 -0.03665937 0.1939879 -0.012029233 0.17526454 -0.0036055732 -0.105230585 -0.051699594 0.018732244 0.095255814 -0.050693672 0.1815502 0.07048859
27 0.19918694 -0.009963908 -0.17706369 0.115016535 -0.04409517 -0.013841436 -0.08623623 -0.13515091 0.072786435 -0.05824369 0.05121904 -0.036950003 0.10439391 -0.1549033 0.15824498 0.0768584 0.118820205 0.05781114 0.10594314 0.029309409 0.0047049774 0.020571288 0.007146317 -0.061687347 0.05894236 -0.200238 -0.15148579 0.15231414 0.14603494 0.13325164 0.11134649 -0.17230004 0.07762264 0.06111063 0.083933264 -0.109269425 -0.010992248 -0.011472691 0.0620054 0.18178803 -0.10548087 0.024887715 -0.013197524 -0.07405524 0.014614228 -0.05861073 -0.04981048 0.0033689677 0.15422963 0.007596644 -0.11862977 0.09798614 -0.1406942 0.07224744 0.10501269 0.14162995 -0.25751954 -0.034315113 -0.044432778 0.015413711 -0.047872752 -0.2509709 -0.08711817 0.015584265 -0.2594294 -0.045490816 0.18485588 0.05643812 0.1631213 -0.14972179 -0.10938951 -0.17133321 -0.016622055 -0.11388594 0.052130435 0.15911499 -0.031797066 0.06418646 -0.010010881 -0.051735763 -0.0722621 -0.032465346 -0.05021182 0.14871864 -0.016613627 -0.086316556 -0.03322179 -0.005723672 -0.11698768 -0.15938687 -0.1308914 0.12832975 -0.008062975 0.00081589015 0.030004095 0.074817024 0.009909669 0.17677267 0.12784421 -0.038526602 0.06927822 0.080713235 -0.0053298883 0.049138464 0.07545039 0.09838553 -0.09538794 0.016674455 -0.019563098 -0.2538774 0.12054849 0.004428153 -0.060408097 0.05399062 -0.061376456 -0.0048803613 0.011065101 0.15498635 -0.029928124 0.1859254 0.018796172 -0.092264995 0.002326067 0.05076167 0.1428785 -0.052407734 0.1958379 0.09651151
12 0.096618794 -0.054953337 -0.10745798 0.11521244 -0.13419788 0.07648652 -0.07541632 -0.16364554 0.1290921 -0.0017341134 -0.0135468105 0.07984115 0.119812176 -0.14613517 0.24622886 0.13910674 0.06975847 0.070772775 0.0014822257 0.044778105 -0.1272657 -0.036825206 -0.037600443 0.01776024 0.06844536 -0.1394333 -0.09543793 0.07569145 0.14225379 0.14973533 0.021930456 -0.1042739 0.1308513 0.1312136 0.024394855 -0.09236514 -0.020179844 -0.021696923 0.011208599 0.15157326 -0.13888103 0.08167164 -0.0037337767 -0.08424232 0.025025662 -0.092543975 -0.11314021 -0.013118845 0.14708671 0.11522973 -0.054091528 0.009540213 -0.15999745 -0.02058988 0.18571062 0.16476947 -0.17523521 -0.016639736 -0.00036936798 0.08402451 -0.034746163 -0.3016371 -0.061402783 0.009237572 -0.18760788 0.032243837 0.16613434 0.018918363 0.14328556 -0.075823635 -0.09664356 -0.1605264 -0.07878774 -0.054166533 0.06949873 0.14635666 -0.01882293 -0.010520992 -0.16008385 -0.053580545 -0.016382722 -0.09636321 -0.07155117 0.11756794 -0.0447099 -0.070134684 0.056441106 0.053864688 -0.065111294 -0.19514823 -0.10921938 0.11790503 -0.055565163 -0.09327529 -0.0024167742 0.13702159 0.013784341 0.15436201 0.16716054 0.048153896 0.112907425 0.03909284 -0.0699783 0.085517965 -0.0546632 0.036608923 0.11098844 -0.011041769 -0.11241387 -0.26477 0.20489983 0.064439945 -0.16984819 0.06208883 -0.007880768 0.12910438 -0.050265428 0.20291561 -0.0058714896 0.17034747 -0.011228785 -0.1087898 -0.060863566 0.0018181544 0.081179805 -0.045135923 0.17553763 0.06125541
